<?xml version="1.0"?>
<opencv_storage>
<cascade>
  <stageType>BOOST</stageType>
  <featureType>HAAR</featureType>
  <height>21</height>
  <width>25</width>
  <stageParams>
    <boostType>GAB</boostType>
    <minHitRate>9.9500000476837158e-01</minHitRate>
    <maxFalseAlarm>1.5000000596046448e-01</maxFalseAlarm>
    <weightTrimRate>9.4999999999999996e-01</weightTrimRate>
    <maxDepth>1</maxDepth>
    <maxWeakCount>100</maxWeakCount></stageParams>
  <featureParams>
    <maxCatCount>0</maxCatCount>
    <featSize>1</featSize>
    <mode>ALL</mode></featureParams>
  <stageNum>5</stageNum>
  <stages>
    <!-- stage 0 -->
    <_>
      <maxWeakCount>2</maxWeakCount>
      <stageThreshold>-2.2660844027996063e-01</stageThreshold>
      <weakClassifiers>
        <_>
          <internalNodes>
            0 -1 2 5.2958719432353973e-02</internalNodes>
          <leafValues>
            -9.7727274894714355e-01 8.0000001192092896e-01</leafValues></_>
        <_>
          <internalNodes>
            0 -1 5 -9.2966563999652863e-02</internalNodes>
          <leafValues>
            7.5066429376602173e-01 -9.7911494970321655e-01</leafValues></_></weakClassifiers></_>
    <!-- stage 1 -->
    <_>
      <maxWeakCount>2</maxWeakCount>
      <stageThreshold>-3.4696871042251587e-01</stageThreshold>
      <weakClassifiers>
        <_>
          <internalNodes>
            0 -1 0 -6.2173422425985336e-02</internalNodes>
          <leafValues>
            7.1428573131561279e-01 -9.9078339338302612e-01</leafValues></_>
        <_>
          <internalNodes>
            0 -1 8 -5.3645450621843338e-02</internalNodes>
          <leafValues>
            6.4381468296051025e-01 -9.8294925689697266e-01</leafValues></_></weakClassifiers></_>
    <!-- stage 2 -->
    <_>
      <maxWeakCount>2</maxWeakCount>
      <stageThreshold>-3.3736222982406616e-01</stageThreshold>
      <weakClassifiers>
        <_>
          <internalNodes>
            0 -1 4 -1.4321935176849365e-01</internalNodes>
          <leafValues>
            6.0784316062927246e-01 -9.5899772644042969e-01</leafValues></_>
        <_>
          <internalNodes>
            0 -1 1 -1.9460793584585190e-02</internalNodes>
          <leafValues>
            6.3282626867294312e-01 -9.4520539045333862e-01</leafValues></_></weakClassifiers></_>
    <!-- stage 3 -->
    <_>
      <maxWeakCount>2</maxWeakCount>
      <stageThreshold>-2.3890323936939240e-01</stageThreshold>
      <weakClassifiers>
        <_>
          <internalNodes>
            0 -1 9 9.4560831785202026e-03</internalNodes>
          <leafValues>
            -9.2511016130447388e-01 8.3333331346511841e-01</leafValues></_>
        <_>
          <internalNodes>
            0 -1 6 6.7073151469230652e-02</internalNodes>
          <leafValues>
            -9.3114757537841797e-01 6.8620687723159790e-01</leafValues></_></weakClassifiers></_>
    <!-- stage 4 -->
    <_>
      <maxWeakCount>2</maxWeakCount>
      <stageThreshold>-4.3395406007766724e-01</stageThreshold>
      <weakClassifiers>
        <_>
          <internalNodes>
            0 -1 3 -5.4201535880565643e-02</internalNodes>
          <leafValues>
            5.0000000000000000e-01 -9.7674417495727539e-01</leafValues></_>
        <_>
          <internalNodes>
            0 -1 7 8.8086098432540894e-02</internalNodes>
          <leafValues>
            -9.3395406007766724e-01 6.5655922889709473e-01</leafValues></_></weakClassifiers></_></stages>
  <features>
    <_>
      <rects>
        <_>
          1 2 6 16 -1.</_>
        <_>
          3 2 2 16 3.</_></rects>
      <tilted>0</tilted></_>
    <_>
      <rects>
        <_>
          2 18 21 1 -1.</_>
        <_>
          9 18 7 1 3.</_></rects>
      <tilted>0</tilted></_>
    <_>
      <rects>
        <_>
          2 18 18 3 -1.</_>
        <_>
          2 19 18 1 3.</_></rects>
      <tilted>0</tilted></_>
    <_>
      <rects>
        <_>
          3 19 17 2 -1.</_>
        <_>
          3 20 17 1 2.</_></rects>
      <tilted>0</tilted></_>
    <_>
      <rects>
        <_>
          5 0 15 6 -1.</_>
        <_>
          10 2 5 2 9.</_></rects>
      <tilted>0</tilted></_>
    <_>
      <rects>
        <_>
          9 11 6 9 -1.</_>
        <_>
          11 14 2 3 9.</_></rects>
      <tilted>0</tilted></_>
    <_>
      <rects>
        <_>
          11 8 4 9 -1.</_>
        <_>
          11 11 4 3 3.</_></rects>
      <tilted>0</tilted></_>
    <_>
      <rects>
        <_>
          13 4 9 9 -1.</_>
        <_>
          16 4 3 9 3.</_></rects>
      <tilted>0</tilted></_>
    <_>
      <rects>
        <_>
          17 2 8 15 -1.</_>
        <_>
          19 2 4 15 2.</_></rects>
      <tilted>0</tilted></_>
    <_>
      <rects>
        <_>
          20 1 4 2 -1.</_>
        <_>
          20 1 2 1 2.</_>
        <_>
          22 2 2 1 2.</_></rects>
      <tilted>0</tilted></_></features></cascade>
</opencv_storage>
