<?xml version="1.0"?>
<opencv_storage>
<cascade>
  <stageType>BOOST</stageType>
  <featureType>HAAR</featureType>
  <height>15</height>
  <width>15</width>
  <stageParams>
    <boostType>GAB</boostType>
    <minHitRate>9.9500000476837158e-01</minHitRate>
    <maxFalseAlarm>2.5000000000000000e-01</maxFalseAlarm>
    <weightTrimRate>9.4999999999999996e-01</weightTrimRate>
    <maxDepth>1</maxDepth>
    <maxWeakCount>100</maxWeakCount></stageParams>
  <featureParams>
    <maxCatCount>0</maxCatCount>
    <featSize>1</featSize>
    <mode>ALL</mode></featureParams>
  <stageNum>5</stageNum>
  <stages>
    <!-- stage 0 -->
    <_>
      <maxWeakCount>2</maxWeakCount>
      <stageThreshold>-1.4604686200618744e-01</stageThreshold>
      <weakClassifiers>
        <_>
          <internalNodes>
            0 -1 6 -1.6387471556663513e-01</internalNodes>
          <leafValues>
            8.1818181276321411e-01 -9.5515692234039307e-01</leafValues></_>
        <_>
          <internalNodes>
            0 -1 3 -5.5064078420400620e-02</internalNodes>
          <leafValues>
            8.0911010503768921e-01 -9.5991402864456177e-01</leafValues></_></weakClassifiers></_>
    <!-- stage 1 -->
    <_>
      <maxWeakCount>2</maxWeakCount>
      <stageThreshold>-2.4867585301399231e-01</stageThreshold>
      <weakClassifiers>
        <_>
          <internalNodes>
            0 -1 9 7.3486030101776123e-02</internalNodes>
          <leafValues>
            -9.3818986415863037e-01 9.4594591856002808e-01</leafValues></_>
        <_>
          <internalNodes>
            0 -1 5 5.6127957999706268e-02</internalNodes>
          <leafValues>
            -9.9065136909484863e-01 6.8951398134231567e-01</leafValues></_></weakClassifiers></_>
    <!-- stage 2 -->
    <_>
      <maxWeakCount>3</maxWeakCount>
      <stageThreshold>-1.2027972936630249e+00</stageThreshold>
      <weakClassifiers>
        <_>
          <internalNodes>
            0 -1 1 9.4237208366394043e-02</internalNodes>
          <leafValues>
            -9.8143851757049561e-01 5.5932205915451050e-01</leafValues></_>
        <_>
          <internalNodes>
            0 -1 8 1.3319489359855652e-01</internalNodes>
          <leafValues>
            -8.7545543909072876e-01 6.7546623945236206e-01</leafValues></_>
        <_>
          <internalNodes>
            0 -1 2 7.5208127498626709e-02</internalNodes>
          <leafValues>
            -8.9682495594024658e-01 6.8060976266860962e-01</leafValues></_></weakClassifiers></_>
    <!-- stage 3 -->
    <_>
      <maxWeakCount>2</maxWeakCount>
      <stageThreshold>-5.2436840534210205e-01</stageThreshold>
      <weakClassifiers>
        <_>
          <internalNodes>
            0 -1 4 6.0373943299055099e-02</internalNodes>
          <leafValues>
            -9.5842957496643066e-01 4.3859648704528809e-01</leafValues></_>
        <_>
          <internalNodes>
            0 -1 10 -7.9258695244789124e-02</internalNodes>
          <leafValues>
            4.3406116962432861e-01 -9.6254926919937134e-01</leafValues></_></weakClassifiers></_>
    <!-- stage 4 -->
    <_>
      <maxWeakCount>3</maxWeakCount>
      <stageThreshold>-1.2598658800125122e+00</stageThreshold>
      <weakClassifiers>
        <_>
          <internalNodes>
            0 -1 11 -1.0796559043228626e-02</internalNodes>
          <leafValues>
            4.0740740299224854e-01 -9.4495415687561035e-01</leafValues></_>
        <_>
          <internalNodes>
            0 -1 7 -6.3319459557533264e-02</internalNodes>
          <leafValues>
            5.9595602750778198e-01 -9.0763074159622192e-01</leafValues></_>
        <_>
          <internalNodes>
            0 -1 0 -5.7922393083572388e-02</internalNodes>
          <leafValues>
            8.8988649845123291e-01 -7.5964254140853882e-01</leafValues></_></weakClassifiers></_></stages>
  <features>
    <_>
      <rects>
        <_>
          0 0 10 2 -1.</_>
        <_>
          0 0 5 1 2.</_>
        <_>
          5 1 5 1 2.</_></rects>
      <tilted>0</tilted></_>
    <_>
      <rects>
        <_>
          1 2 4 13 -1.</_>
        <_>
          3 2 2 13 2.</_></rects>
      <tilted>0</tilted></_>
    <_>
      <rects>
        <_>
          1 6 8 7 -1.</_>
        <_>
          3 6 4 7 2.</_></rects>
      <tilted>0</tilted></_>
    <_>
      <rects>
        <_>
          1 8 8 4 -1.</_>
        <_>
          1 8 4 2 2.</_>
        <_>
          5 10 4 2 2.</_></rects>
      <tilted>0</tilted></_>
    <_>
      <rects>
        <_>
          2 2 4 8 -1.</_>
        <_>
          3 2 2 8 2.</_></rects>
      <tilted>0</tilted></_>
    <_>
      <rects>
        <_>
          2 12 11 3 -1.</_>
        <_>
          2 13 11 1 3.</_></rects>
      <tilted>0</tilted></_>
    <_>
      <rects>
        <_>
          3 0 9 3 -1.</_>
        <_>
          6 1 3 1 9.</_></rects>
      <tilted>0</tilted></_>
    <_>
      <rects>
        <_>
          6 8 4 4 -1.</_>
        <_>
          6 10 4 2 2.</_></rects>
      <tilted>0</tilted></_>
    <_>
      <rects>
        <_>
          9 2 6 3 -1.</_>
        <_>
          11 4 2 3 3.</_></rects>
      <tilted>1</tilted></_>
    <_>
      <rects>
        <_>
          9 3 3 12 -1.</_>
        <_>
          10 3 1 12 3.</_></rects>
      <tilted>0</tilted></_>
    <_>
      <rects>
        <_>
          10 2 4 12 -1.</_>
        <_>
          12 2 2 12 2.</_></rects>
      <tilted>0</tilted></_>
    <_>
      <rects>
        <_>
          12 12 2 2 -1.</_>
        <_>
          12 12 1 1 2.</_>
        <_>
          13 13 1 1 2.</_></rects>
      <tilted>0</tilted></_></features></cascade>
</opencv_storage>
